Version 8.6.1
Id 
Min label:-1
Max label:1
bits:18
lda:0
0 ngram:
0 skip:
options: --hash_seed 0 --oaa 10 --link identity
Checksum: 3182029895
:0
5952:0.0440878
5953:-0.432647
5954:0.0878555
5955:-0.494197
5956:0.0391712
5957:-0.502419
5958:0.0359814
5959:-0.503441
5960:0.0393471
5961:-0.503586
21952:-0.14895
21953:-0.17286
21954:-0.183599
21955:-0.1581
21956:-0.166008
21957:-0.15205
21958:-0.159476
21959:-0.147059
21960:-0.154227
21961:-0.141897
129536:-0.14895
129537:-0.17286
129538:-0.183599
129539:-0.1581
129540:-0.166008
129541:-0.15205
129542:-0.159476
129543:-0.147059
129544:-0.154227
129545:-0.141897
149664:-0.461774
149665:0.0448877
149666:-0.40501
149667:0.00752521
149668:-0.452984
149669:0.00628393
149670:-0.460046
149671:0.010667
149672:-0.461394
149673:0.0158617
229680:-0.14895
229681:-0.17286
229682:-0.183599
229683:-0.1581
229684:-0.166008
229685:-0.15205
229686:-0.159476
229687:-0.147059
229688:-0.154227
229689:-0.141897
251456:-0.14895
251457:-0.17286
251458:-0.183599
251459:-0.1581
251460:-0.166008
251461:-0.15205
251462:-0.159476
251463:-0.147059
251464:-0.154227
251465:-0.141897
