Version 8.6.1
Id 
Min label:-1
Max label:1
bits:18
lda:0
0 ngram:
0 skip:
options: --hash_seed 0 --oaa 7 --link identity
Checksum: 1921011222
:0
2976:-0.175814
2977:-0.168755
2978:-0.122253
2979:-0.181248
2980:-0.144249
2981:-0.179654
2982:-0.143727
74832:-0.18747
74833:-0.153562
74834:-0.133933
74835:-0.165678
74836:-0.155904
74837:-0.163752
74838:-0.155364
114840:-0.142655
114841:-0.144794
114842:-0.150122
114843:-0.135548
114844:-0.138166
114845:-0.129235
114846:-0.131232
125728:-0.142655
125729:-0.144794
125730:-0.150122
125731:-0.135548
125732:-0.138166
125733:-0.129235
125734:-0.131232
142048:-0.142655
142049:-0.144794
142050:-0.150122
142051:-0.135548
142052:-0.138166
142053:-0.129235
142054:-0.131232
195840:-0.142655
195841:-0.144794
195842:-0.150122
195843:-0.135548
195844:-0.138166
195845:-0.129235
195846:-0.131232
