Version 8.6.1
Id 
Min label:-1
Max label:1
bits:18
lda:0
0 ngram:
0 skip:
options: --hash_seed 0 --quadratic ab --link identity
Checksum: 3417833913
:0
Constant:116060:-0.0421919
a^x:55432:-0.0421919
a^x*b^x1:244870:0.0624969
a^x*b^x2:7472:-0.12023
a^x*b^y1:97903:-0.0421919
a^x*b^z1:190909:-0.0421919
a^y:42847:-0.0421919
a^y*b^x1:6163:0.0624969
a^y*b^x2:244133:-0.12023
a^y*b^y1:187130:-0.0421919
a^y*b^z1:85288:-0.0421919
a^z:202246:-0.0421919
a^z*b^x1:51692:0.0624969
a^z*b^x2:223322:-0.12023
a^z*b^y1:133893:-0.0421919
a^z*b^z1:105687:-0.0421919
b^x1:221854:0.0624969
b^x2:49960:-0.12023
b^y1:106615:-0.0421919
b^z1:145317:-0.0421919
