Version 8.6.1
Id 
Min label:-1
Max label:1
bits:18
lda:0
0 ngram:
0 skip:
options: --hash_seed 0 --quadratic ab --link identity
Checksum: 3417833913
:0
6163:0.0624969
7472:-0.12023
42847:-0.0421919
49960:-0.12023
51692:0.0624969
55432:-0.0421919
85288:-0.0421919
97903:-0.0421919
105687:-0.0421919
106615:-0.0421919
116060:-0.0421919
133893:-0.0421919
145317:-0.0421919
187130:-0.0421919
190909:-0.0421919
202246:-0.0421919
221854:0.0624969
223322:-0.12023
244133:-0.12023
244870:0.0624969
