Version 8.6.1
Id 
Min label:-1
Max label:1
bits:18
lda:0
0 ngram:
0 skip:
options: --hash_seed 0 --oaa 4 --link identity
Checksum: 627763178
:0
1488:0.272992
1489:-0.720582
1490:0.330186
1491:-0.827401
37416:-0.775196
37417:0.314815
37418:-0.708936
37419:0.223987
57420:-0.0622747
57421:-0.0846756
57422:-0.0885184
57423:-0.0500203
62864:-0.0622747
62865:-0.0846756
62866:-0.0885184
62867:-0.0500203
202096:-0.0622747
202097:-0.0846756
202098:-0.0885184
202099:-0.0500203
228992:-0.0622747
228993:-0.0846756
228994:-0.0885184
228995:-0.0500203
