Version 8.6.1
Id 
Min label:-10000
Max label:10000
bits:18
lda:0
0 ngram:
0 skip:
options: --hash_seed 0 --quadratic :: --link identity
Checksum: 3881054224
:0
7:0.116037
67:0.0632805
83:0.101929
303:0.066803
646:-0.00642391
794:0.102335
851:0.0204149
870:0.0681879
1488:0.0646088
1507:0.0595348
1512:0.0531591
1618:0.0649138
1647:0.069382
1849:0.0651941
2044:0.043368
2077:0.0446443
2104:-0.0250329
2290:0.0446443
2309:0.0532044
2330:0.120261
2372:0.0661197
2717:0.0637294
2824:0.067843
2971:0.0644485
2992:0.0612447
3007:0.043368
3025:0.0341641
3142:0.0255005
3144:0.00945069
3239:0.0687936
3529:0.0310381
3692:0.0462407
3744:0.0640825
3802:0.15596
3840:0.0644934
4172:0.136831
4229:0.0533291
4302:0.0686936
4603:0.0637294
4696:0.0825547
4818:0.0776961
4951:0.0634654
5075:0.0127625
5176:0.0625956
5369:0.067843
5379:0.0649138
5596:0.0676471
5657:0.0533291
5746:0.0594526
5810:0.0632805
5891:0.0624213
5978:0.130334
6207:-0.0164828
6487:0.0657112
6780:0.0423745
6824:0.0607943
6863:0.0661361
6986:0.0540569
6987:0.0383737
7098:0.0676713
7113:-0.0164828
7188:0.0644485
7192:0.0569095
7244:0.106569
7267:0.0661197
7328:0.0446443
7353:0.0569095
7490:0.178912
7519:0.0676367
7659:0.0607943
7704:-0.0164828
7739:0.0561881
7753:0.0615826
7864:0.0310381
7924:0.066117
8031:0.0767278
8157:0.0637294
8169:0.0547176
8362:0.0612447
8394:0.0423745
8516:0.0661197
8775:0.066072
8800:0.0407653
8841:0.0686936
8906:0.0510018
8991:0.0226666
9064:-0.0272514
9247:0.161947
9285:-0.00851197
9332:0.0878491
9337:0.0204149
9549:-0.0221484
9638:0.0626828
9746:0.197478
9814:0.0676471
10099:0.0676713
10113:0.0547176
10114:0.160696
10129:0.0536641
10170:0.0596316
10319:0.0640825
10434:0.0686148
10561:0.0661361
10826:0.109469
10846:0.0348256
10911:0.0676713
10988:0.0449244
10995:0.0690164
11078:0.058622
11115:0.0626828
11259:0.0540569
11305:0.0786957
11306:0.067843
11373:0.00945069
11380:0.0687936
11392:0.0667206
11481:0.0547176
11681:0.0603798
12153:0.140967
12337:0.0383737
12566:0.0407653
12577:0.0572843
12964:0.0595348
12984:0.0540569
13096:0.025735
13180:0.066117
13291:0.0532044
13306:0.0809362
13328:0.0649138
13373:0.052874
13413:-0.00851197
13513:0.0407653
13620:-0.00286908
13705:-0.0462539
13795:0.194492
13874:-0.00851197
13912:0.106822
13915:0.0518874
14192:0.047709
14203:0.0373242
14296:0.058622
14325:0.047709
14335:0.0533291
14431:-0.0164828
14519:-0.0164828
14522:0.025657
14609:0.0612447
14669:0.0687936
14752:0.0310381
14901:0.0127625
14910:0.0690164
15174:0.0547176
15178:0.00555264
15388:0.0669371
15529:0.0569095
15549:0.0944594
15576:0.0619214
15655:0.0462407
15780:0.103911
15912:0.0681033
15965:0.0661197
16328:-0.0212484
16336:0.0644934
16442:0.0687936
16705:0.0572843
16758:0.0644485
16766:0.0598653
16801:0.0449244
16890:0.0925912
17174:0.0598653
17211:0.0407653
17490:-0.0212484
17505:0.0649138
17558:0.0383737
17599:0.0686148
17611:0.0680736
17645:0.0596382
17682:0.167002
17851:0.0640825
18238:0.0644934
18317:0.0676471
18381:0.0667206
18392:0.129773
18606:0.0681879
18645:0.0594526
18654:0.0423745
18945:0.0678534
18955:0.0204149
19211:-0.00642391
19318:0.0572843
19432:0.0637294
19603:0.0651941
19665:0.0540569
19686:0.0572843
19735:0.066117
19922:0.255538
20011:0.0687936
20487:0.0652826
20679:-0.00851197
20746:-0.0421283
20794:0.0610112
20996:0.0204149
21025:0.0676471
21204:0.0644934
21217:0.043368
21722:0.047709
21762:0.0373242
21786:0.0667206
21913:0.0748306
21916:0.0676713
21992:0.0681033
22079:0.125058
22264:0.0966704
22340:-0.0272514
22383:0.0533291
22441:0.0661197
22571:0.0687936
22707:-0.00286908
22858:0.0156391
22914:0.0932769
22955:0.0561881
23112:0.0644934
23731:0.0652826
23938:0.103002
23939:0.0625956
24359:0.00945069
24450:0.0644934
24554:0.0658766
24624:0.0637294
24696:0.277653
24790:0.0603798
24837:0.0607943
25003:0.0676471
25029:0.0510018
25245:0.0341641
25300:0.0685132
25324:0.067843
25366:0.0348256
25650:0.047709
25716:0.0423745
25864:0.139509
25918:-0.00642391
26066:0.0661197
26196:0.0644485
26450:0.0407653
26534:0.151776
26676:0.0676713
26768:0.0580034
26887:0.052874
26965:0.0676713
27112:0.0686148
27229:0.0640825
27238:-0.0462539
27289:0.0685132
27738:-0.00286908
27880:0.0625956
28002:0.0640825
28018:0.0649138
28074:0.0594526
28137:0.069382
28321:0.0547176
28426:0.0686936
28506:0.099791
28704:0.0383737
28768:0.0632805
28816:0.0505225
28984:0.00945069
28989:0.0595348
29067:0.0595348
29247:0.0510018
29728:0.0348256
29742:0.0156391
29747:0.0681879
29951:0.0652826
30021:0.0625956
30324:0.0682733
30365:0.0336441
30458:0.0678534
30596:0.0561881
30615:0.0594526
30628:0.052874
30666:0.066803
31022:0.0594526
31093:0.0626828
31111:-0.0212484
31119:0.0681879
31309:0.0538512
31314:0.00555264
31576:0.0644934
31691:0.058622
31710:0.0658766
31923:0.0580034
31998:0.067843
32033:0.0603798
32052:0.172678
32138:0.0540569
32191:0.0532044
32194:0.0462407
32288:0.0336441
32365:0.0598653
32479:0.0646088
32634:0.043368
32682:0.043368
32811:-0.00642391
32819:0.0341641
33090:0.0580034
33243:0.0598653
33417:0.1023
33569:0.0619214
33840:-0.0221484
33888:0.0681033
34372:0.154103
34419:0.0596382
34448:0.134987
34687:0.0383737
34692:-0.0221484
34900:0.0336441
34970:0.0634654
34977:0.0505225
35043:0.108919
35047:0.0505225
35148:-0.0212484
35164:0.0646088
35185:0.0572843
35522:0.141877
35663:0.0672725
35734:0.0348256
35756:0.0531591
35771:0.0532044
35775:0.0625956
35897:0.0676471
36155:-0.00851197
36276:0.096971
36400:0.00945069
36462:0.0603798
36531:0.0462407
36844:-0.00851197
36863:0.0533291
37075:0.0341641
37080:0.0336441
37169:0.0690164
37208:0.0462407
37249:0.0661197
37448:0.0607943
37555:0.0678534
37591:0.0373242
37652:0.0640825
37780:0.0156391
37888:0.111974
37931:0.0640825
37979:-0.0462539
38030:0.0341641
38106:0.0310381
38155:0.0942051
38189:0.0657112
38289:0.0676713
38294:0.0595348
38542:0.0479551
38653:0.0449244
38749:-0.00642391
38888:0.106569
38889:0.106877
38916:0.0547176
38920:0.0373242
38991:0.0644485
39011:0.0610112
39048:0.134987
39427:0.0598653
39485:0.0661361
39547:-0.0212484
39656:0.132394
40219:0.0255005
40316:-0.0421283
40352:0.0646088
40376:0.0580034
40428:0.0669371
40497:0.0127625
40532:0.0624213
40644:0.0561881
40760:0.0687936
40899:0.0742643
41293:0.058622
41308:-0.0221484
41335:0.066803
41458:0.0156391
41660:0.0652826
41936:0.131134
41963:0.0640825
41978:0.212843
42059:0.0449244
42066:0.0626828
42174:0.0348256
42256:0.161825
42296:0.0588935
42299:0.0127625
42336:0.0747051
42388:-0.00286908
42425:0.0446443
42671:0.0619214
42739:0.0775157
42875:0.0619214
42984:0.121781
43030:0.0667206
43047:0.0510018
43216:0.0407653
43404:0.0607943
43473:0.0681879
43475:0.0657112
43494:0.0667206
43607:0.0572843
43651:0.0690164
43705:0.0204149
43733:0.0603798
43765:0.0598653
43778:0.0533291
43821:0.0651941
43944:0.0657112
43995:0.069382
44240:0.131132
44293:0.0681033
44355:-0.0221484
44448:0.0680736
44487:0.0572843
44580:0.0561881
44665:0.066117
44791:-0.0221484
44797:0.102589
44807:-0.0462539
44817:0.058622
44855:0.0676471
44987:0.0204149
45263:0.104135
45291:0.069382
45393:0.047709
45431:0.0569095
45526:0.0569095
45547:0.0756626
45584:0.0588935
45612:0.0594526
45646:0.0651941
45730:0.0681879
45875:0.0661361
45954:0.0156391
46495:0.0286188
46506:0.067843
46531:-0.00642391
46927:0.197478
47004:0.067843
47429:0.0651941
47462:0.0127625
47647:0.0603798
47664:0.0569095
47761:0.116037
47895:0.066117
47942:0.0644934
48038:0.0407653
48091:0.00555264
48207:0.0594526
48242:0.0649138
48292:0.0446443
48309:0.0825547
48338:0.0687936
48392:0.15716
48475:0.0540569
48595:-0.0164828
48709:0.0619214
48754:0.069382
48899:0.0536641
49136:0.0595348
49239:0.132433
49908:0.121197
50019:0.0651941
50197:0.0685132
50369:0.145985
50532:0.0866324
50608:0.0667206
51172:0.0603798
51182:0.0595348
51250:0.112654
51302:-0.0462539
51357:-0.00851197
51418:0.152932
51595:0.0407653
51642:0.0661197
51823:0.0531591
52005:0.0649138
52096:0.0646088
52148:0.160456
52178:0.0685132
52256:0.0658766
52374:0.0540569
52397:0.0632805
52420:0.069382
52468:0.067843
52475:0.0634654
52512:0.0646088
52788:0.0479551
52815:0.0672725
52840:0.0625956
53041:0.066072
53259:0.0640825
53511:0.0341641
53793:0.0607943
54006:0.0658766
54072:0.0681879
54074:0.0672725
54117:0.00945069
54216:0.0612447
54237:-0.0272514
54298:0.0373242
54382:0.0127625
54772:0.130334
54917:0.066803
54920:0.0651941
54947:0.0661197
55036:0.0156391
55045:0.0462407
55186:0.113018
55196:0.0156391
55200:0.114347
55312:0.137074
55327:0.0348256
55383:0.043368
55512:-0.0164828
55664:0.069382
55698:0.0479551
56092:0.066117
56117:0.0533291
56128:0.0676471
56216:0.052874
56325:0.066072
56398:0.067843
56546:0.025735
56583:0.0533291
56605:0.0661197
56756:0.0687936
56875:0.0632805
56927:0.0651941
57037:0.0336441
57142:0.0637294
57643:0.0686936
57738:0.0373242
57786:0.194492
57881:-0.0212484
58088:0.0594526
58109:0.0678534
58114:0.145644
58153:0.108787
58297:0.0634654
58341:0.0226666
58446:0.115217
58543:0.0479551
58749:0.0727321
58874:0.0156391
59052:0.0607943
59086:0.0580034
59185:0.066117
59385:0.0127625
59440:0.0661197
59486:0.0687936
59632:0.0640825
59641:0.0479551
59847:0.0680736
59858:0.047709
59877:0.0607943
60019:0.119833
60200:0.0510018
60281:0.0532044
60380:0.0634654
60438:0.0423745
60681:0.0780533
60738:0.0336441
61053:0.0685132
61272:0.0569095
61368:0.0407653
61479:0.0462407
61609:0.0595348
61656:0.0531591
61742:-0.0212484
61908:0.0685132
61965:0.0626828
62266:-0.0462539
62272:0.0747051
63007:0.0626828
63386:0.1273
63496:0.171928
63573:0.0286188
63698:0.315126
63761:0.0572843
63776:0.137074
64016:-0.00642391
64347:0.0657112
64356:0.0536641
64364:0.067843
64737:0.0533291
64762:-0.00286908
64836:0.0690164
64890:0.0538512
64944:0.0449244
64976:0.0204149
65031:0.167866
65043:0.0685132
65146:0.0658766
65329:0.0681033
65340:-0.0250329
65440:0.0127625
65502:0.114075
65582:0.0569095
65674:0.149986
65765:0.0680736
65780:0.0532044
65836:0.0572843
66199:-0.00851197
66262:0.0685132
66690:0.0690164
67014:0.0341641
67034:0.0156391
67155:0.0624213
67492:0.0619214
67535:0.0681033
67744:0.0446443
67821:-0.0462539
68038:0.15257
68176:0.0407653
68335:0.066117
68408:0.157964
68474:0.0423745
68518:0.0156391
68617:0.066072
68703:0.0678534
69003:0.130522
69029:0.0681033
69283:0.0634654
69450:0.00555264
69609:0.0640825
69700:0.067843
69725:0.0634654
69795:0.0634343
69856:-0.00851197
69872:-0.0352447
69963:0.0561881
69977:0.0686704
70001:0.0569095
70114:0.0651941
70128:0.0825547
70214:0.0536641
70266:0.0658766
70498:0.0595348
70778:0.126826
70841:0.0445298
70950:0.0341641
71305:0.069382
71331:0.0685132
71487:0.0127625
71531:-0.0462539
71719:0.178912
72036:0.0685132
72164:0.0561881
72466:0.154103
72496:0.0632805
72654:0.0672725
72692:0.0646088
72712:0.0348256
72916:-0.0250329
73289:0.0423745
73829:0.0462407
74028:0.0646088
74248:0.0681033
74608:0.0793722
74687:0.0672725
74907:-0.0421283
74944:0.0681033
75081:0.0640825
75089:0.058622
75114:-0.0352447
75829:0.066803
75843:0.0679588
75909:0.0536641
75962:0.0596382
76066:0.066803
76133:0.0637294
76156:0.052874
76296:0.00945069
76352:0.0626828
76760:0.0533291
76856:-0.0462539
77141:0.0652826
77158:-0.0212484
77175:-0.00286908
77279:0.0569095
77280:0.0637294
77378:0.116826
77456:0.15716
77857:0.0942051
77977:0.0532044
78068:0.1273
78079:0.0644485
78256:0.0649138
78268:0.043368
78345:0.066117
78683:0.0505225
78735:0.0612447
78746:-0.0272514
79087:0.0423745
79211:0.00555264
79395:0.0612447
79558:0.025735
79608:0.0510018
79677:0.0595348
79718:-0.0272514
79726:0.0572843
79888:0.0716395
80053:0.0446443
80084:0.0644485
80222:0.052874
80304:0.0649138
80410:0.11655
80638:0.0373242
80800:0.0407653
80988:0.0628238
81134:0.0536641
81184:0.0336441
81280:0.0658766
81290:-0.0164828
81703:0.0505225
81771:-0.00851197
82202:0.131257
82279:0.107685
82386:0.0156391
82473:0.0619214
82514:0.025735
82621:0.066803
82735:0.0341641
82802:0.0594526
82861:0.0596382
82872:0.0580034
83224:0.0649138
83321:0.0676367
83350:0.0578682
83545:0.0678534
83596:0.0681879
84100:-0.0462539
84384:0.12651
84387:0.0373242
84585:0.0988361
84784:0.0681879
85028:0.0531591
85049:0.0625956
85057:0.0661197
85399:0.0286188
85418:0.0619214
85460:0.038994
85664:0.0532044
85756:-0.0212484
85878:0.0687936
85889:0.0348256
85966:-0.00642391
86015:-0.0421283
86060:0.0624213
86137:0.0658766
86915:-0.0421283
86991:0.0341641
87141:-0.0221484
87188:0.0619214
87192:-0.0250329
87248:0.0898755
87480:0.161825
87722:0.0510018
87810:-0.0462539
87859:0.088506
88153:0.0505225
88294:0.191293
88332:0.099791
88374:0.0310381
88506:-0.00286908
88523:0.0407653
88540:-0.0164828
88626:0.066803
88651:0.0657112
88785:0.0310381
88792:0.0532044
88809:0.0678534
88841:0.0651941
89024:0.0449244
89135:0.0156391
89148:-0.0221484
89178:0.130522
89197:0.0561881
89306:0.15781
89368:0.00945069
89808:0.129773
89974:0.047709
89992:-0.0221484
90027:0.066072
90045:0.0610112
90322:0.0649138
90342:0.157594
90682:0.0681033
90808:0.0686148
90990:0.0423745
91289:-0.0221484
91346:0.0649138
91472:0.0646088
91638:0.0595348
91704:0.0462407
91898:0.132562
91899:0.058622
91938:0.103911
92101:0.0598653
92152:0.0644934
92192:0.0598653
92216:0.0681879
92450:0.0988361
92488:0.0310381
92744:0.0598653
92803:-0.00642391
92983:0.0286188
93057:0.0572843
93072:0.0672725
93289:0.0634654
93338:0.0505225
93352:0.0505225
93599:0.0510018
93699:0.0686936
93738:0.0580034
93843:0.0540569
93912:0.0156391
93943:0.0127625
94379:0.0594526
94508:0.00945069
94616:0.131134
94874:0.170188
94993:0.0531591
95089:0.058622
95302:0.052874
95360:0.0646088
95512:-0.0421283
95706:0.0286188
95780:0.0348256
95837:0.0595348
95896:0.0667206
95928:0.0607943
96099:0.0661361
96202:0.0479551
96206:0.0596382
96323:0.067843
96616:0.0531591
96930:0.108787
96951:0.0909632
97089:0.066117
97218:0.00555264
97502:-0.00286908
97632:0.0657112
98046:0.0505225
98066:0.145985
98154:0.0536641
98161:-0.0421283
98239:-0.0250329
98441:0.0286188
98486:0.0686936
98567:0.0652826
98795:0.0595348
98809:-0.00286908
98948:0.0991752
99204:0.0646088
99225:0.0572843
99243:0.0598653
99414:0.0661361
99504:0.0907615
99866:0.0479551
99951:0.066072
100060:0.052874
100105:0.0672725
100245:0.0594526
100271:0.0685132
100553:0.0836829
100560:0.0336441
100602:0.0596382
100606:0.0505225
100614:0.0625956
100632:0.0449244
100730:0.066803
100738:0.0661361
100783:0.0686148
100871:0.0676713
100913:0.0603798
100990:0.0658766
101026:0.149844
101166:0.0657112
101391:0.00945069
101440:0.0531591
101462:0.0449244
101528:0.0533291
101791:0.043368
101801:-0.0462539
101870:0.0685132
101926:0.0598653
101944:0.0652826
101976:0.0610112
102014:0.0652826
102072:0.066072
102158:0.0634654
102173:-0.0352447
102369:0.0676713
102495:0.0547176
102516:0.104816
102836:0.0995185
102903:-0.0250329
102976:0.0867388
102983:0.0685132
103069:0.0596382
103289:-0.0421283
103299:0.0610112
103448:0.0612447
103497:0.0383737
103577:0.0505225
103753:0.0462407
103790:0.0606943
103824:0.0580034
103887:-0.0272514
103979:0.122593
104035:0.0637294
104049:0.058622
104390:0.0603798
104478:0.00945069
104611:0.066072
104706:-0.0272514
104907:0.0661361
105181:0.0127625
105394:0.0914438
105509:0.0449244
105600:0.047709
105683:0.0373242
105790:0.0637294
105939:0.0619214
106040:0.0632805
106097:0.025735
106180:0.0341641
106312:0.0971031
106360:0.104672
106469:0.0676471
106555:0.00945069
106795:0.0580034
106836:0.0561881
107024:0.157964
107374:0.0661361
107420:-0.0250329
107580:0.0531591
107683:0.0678534
107768:0.0686148
107783:0.0595348
108218:0.0727321
108225:-0.00642391
108286:0.0596382
108418:0.0533291
108713:0.0685132
108862:-0.00851197
109062:0.069382
109069:0.0286188
109319:0.066072
109538:0.0533291
109545:-0.00851197
109671:0.066117
109672:0.047709
109697:0.0479551
109698:0.0446443
109705:0.069382
109767:0.0336441
109950:0.0533291
110057:0.0680736
110081:0.00555264
110151:0.066803
110170:0.0649138
110256:0.0652826
110348:0.066117
110542:0.0598653
110586:0.0825547
110864:0.0407653
110974:0.0651941
111055:0.0806002
111062:0.166831
111165:0.0341641
111414:0.069382
111780:0.0610112
111888:0.093055
112075:0.066072
112122:0.00555264
112410:0.043368
112415:0.0610112
112519:0.0510018
112616:0.136831
112687:0.0836829
112749:0.0625956
112767:0.113018
112804:0.0532044
112848:0.0756626
112916:0.0531591
112926:-0.00851197
113020:0.0572843
113360:0.106822
113393:-0.0250329
113502:0.0676471
113574:0.0661197
113615:0.0672725
114112:0.0348256
114217:0.0407653
114249:0.0580034
114362:0.00555264
114463:0.0676713
114623:0.0532044
115228:0.0652826
115328:0.0569095
115356:0.0644934
115661:0.0690164
115679:0.106877
115704:0.0540569
115724:0.0651941
115743:0.0661361
115778:0.0787987
115873:0.0341641
115986:0.069382
116017:-0.0164828
116056:0.0632805
116060:0.925422
116141:0.0681879
116169:0.0936391
116314:0.0572843
116441:0.052874
116660:0.121781
116817:0.170771
117038:0.0681879
117179:-0.0421283
117248:0.0644934
117509:0.0532044
117770:0.0156391
117909:0.0532044
117955:0.0619214
118077:0.124298
118083:0.0286188
118097:0.118231
118130:-0.0212484
118900:-0.0221484
118950:0.069382
119143:0.066117
119263:0.0572843
119301:-0.0462539
119442:0.0624213
119673:0.0510018
119763:0.0204149
119922:-0.0212484
119961:0.0644485
120009:0.047709
120057:0.0651941
120177:-0.0221484
120248:0.0651941
120356:0.0561881
120495:0.0646088
120619:0.00945069
120726:0.0686148
120877:0.0341641
121008:0.069382
121079:0.052874
121175:0.047709
121298:0.047709
121365:-0.00642391
121638:0.067843
121821:0.0657112
121927:0.0510018
121931:0.102589
122089:0.0687936
122103:0.122606
122106:0.191091
122144:0.0680736
122223:0.0651941
122299:0.0667206
122433:0.0686936
122506:0.096971
122762:0.0286188
123016:-0.0221484
123110:0.0690164
123159:0.0547176
123528:0.0532044
123602:0.129946
123665:0.0681033
124068:0.0678534
124089:-0.00286908
124307:0.052874
124415:0.0531591
124456:0.0595348
124497:0.0624213
124572:-0.0421283
124612:0.0561881
124633:0.0310381
124647:0.0449244
124832:0.0479551
124881:0.0449244
124917:0.0651941
124931:0.0310381
125273:-0.0462539
125326:0.102335
125349:0.0681879
125842:0.0676471
125919:0.0625956
125943:0.0612447
126011:0.0681879
126057:0.0649138
126140:0.10823
126192:0.111191
126197:-0.0421283
126386:0.0407653
126519:0.0626828
126555:0.0612447
126610:0.0686936
126786:0.0510018
126833:0.158262
127205:0.0626828
127227:0.101929
127278:-0.0462539
127435:0.0612447
127465:0.0756626
127754:0.0624213
127802:0.0634654
127968:0.0672725
128136:0.0348256
128328:0.0681033
128539:0.0331497
128569:0.0661197
128583:-0.0352447
128652:0.0449244
128672:0.0640825
128904:0.0341641
128948:0.0341641
129068:0.0569095
129384:0.0686936
129402:0.119833
129520:0.0867388
129693:0.0533291
129739:0.0540569
129814:0.0652826
129870:0.0644485
129914:0.0825547
130165:0.0632805
130179:0.047709
130255:0.0607943
130497:0.0657112
130637:0.0634654
130767:0.0672725
130798:0.0383737
130850:0.1023
130872:0.0649138
131002:0.0657112
131086:0.0286188
131129:0.0932769
131134:0.0644934
131142:-0.00286908
131232:0.0658766
131288:0.0898755
131413:0.0462407
131474:0.158262
131528:0.106415
131676:0.0624213
131731:0.0632805
131850:0.125857
131867:0.0681033
131936:0.047709
132030:0.0580034
132173:0.067843
132294:0.0156391
132372:0.0561881
132627:0.047709
132670:0.0533291
132681:0.0336441
132746:0.152661
132816:0.0595348
132824:0.0661361
132889:0.052874
132939:0.0685132
133096:0.0626828
133256:0.0532044
133282:0.132433
133554:0.00555264
133594:0.0510018
133652:0.0598653
133703:0.160696
133742:0.025735
133901:0.0632805
133972:-0.0164828
134267:0.0607943
134578:0.0264447
134720:0.0603798
134800:0.155844
134818:0.0505225
134888:0.0682733
134900:0.0336441
135153:0.0594526
135195:0.0657112
135213:0.132562
135251:0.0652826
135259:0.052874
135391:0.0446443
135584:-0.0352447
135637:0.0825547
135853:0.0204149
135896:0.0756626
136037:0.0373242
136119:0.0603384
136316:0.0676713
136365:0.0531591
136377:0.0373242
136416:0.106834
136487:0.0686936
136658:0.0625956
136893:0.0690164
136908:0.00945069
136929:0.0776961
137031:0.0156391
137346:0.0644934
137484:-0.0272514
137487:0.0547176
137658:0.13156
137972:0.170188
137974:0.0204149
138141:0.0646088
138187:0.0624213
138206:0.0681879
138217:0.0336441
138297:-0.0352447
138612:0.0661197
138890:0.0603798
139096:0.0612447
139408:0.0383737
140143:0.067843
140146:0.0657112
140650:0.0686936
140755:0.0462407
141123:0.120032
141302:0.066072
141328:0.0336441
141472:0.0536641
141801:0.0637294
142034:0.114075
142078:0.0204149
142132:0.139532
142181:0.0672725
142322:0.0407653
142381:-0.00642391
142609:-0.00642391
142655:0.052874
142676:0.099791
143119:0.0661197
143194:0.067843
143397:0.0649138
143465:0.0594526
143627:0.0680736
143821:0.0204149
143941:-0.0421283
143987:0.0540569
144011:0.025735
144145:0.052874
144152:0.0825547
144266:0.0690164
144369:0.0603798
144430:0.0686148
144527:0.0686148
144578:0.066072
144647:0.0598653
144726:0.0661361
144896:0.0686148
145057:0.0686148
145200:0.0657112
145295:0.0680736
145403:0.0373242
145618:0.0572843
145637:0.0742643
145972:0.0610112
146003:0.0835192
146081:0.0676471
146170:0.00555264
146212:0.0423745
146238:0.066803
146372:0.0596382
146466:0.00555264
146554:0.0786957
146560:0.0462407
146699:0.0690164
146765:0.0685132
146902:0.102107
147302:0.066803
147317:-0.0462539
147515:0.15781
147524:0.0598653
147626:0.0676713
147662:0.0156391
147871:0.0667206
148035:0.025735
148131:0.0658766
148223:-0.0212484
148246:0.0676471
148377:0.0661197
148829:-0.0421283
148961:0.0681033
148985:0.0462407
149024:0.0626828
149320:0.10823
149495:0.0479551
149505:0.0310381
149572:0.0569095
149735:0.0626828
149817:0.066803
149858:0.135781
149897:0.0595348
149920:0.0580034
149928:0.0127625
150048:0.106666
150071:0.0383737
150155:0.067843
150185:0.0407653
150192:0.0640825
150196:0.0596382
150211:0.0637294
150242:0.103002
150369:0.0651941
150393:0.0407653
150523:0.0383737
150540:0.0479551
150571:0.069382
150760:0.0547176
150943:0.0204149
150964:0.152661
150973:0.0646088
151152:0.052874
151255:-0.0164828
151322:0.0625956
151372:0.0423745
151383:0.0632805
151609:0.0579029
151654:-0.0221484
151738:0.134225
151990:0.066803
151991:0.0977164
152046:0.0341641
152191:0.0572843
152283:0.0383737
152368:0.0423745
152392:0.107535
152459:0.047709
152530:0.144102
152534:0.0676471
152588:0.0610112
152626:0.067843
152681:0.043368
152707:0.0127625
152745:0.0446443
152851:0.0625956
152852:0.043368
152858:0.0681033
153078:0.0626828
153092:0.138549
153306:0.0596382
153317:0.0449244
153386:-0.00642391
153446:0.066803
153478:0.104816
153889:-0.0421283
154093:-0.0352447
154094:0.066072
154095:0.0634654
154146:0.0595348
154160:0.0686936
154187:0.0310381
154204:-0.0221484
154312:-0.0221484
154373:0.066072
154427:0.140967
154518:0.0678534
154565:0.0348256
154593:0.229412
154612:0.132394
154673:0.0652826
154727:0.0510018
154755:0.0204149
154828:0.0661361
154834:0.0681879
154853:-0.0353749
154927:0.0446443
155171:0.0540569
155405:0.0286188
155427:0.0607943
155445:0.0594526
155473:0.144102
155704:0.0373242
155802:-0.0353749
155888:0.058622
155959:0.0681879
156153:0.0407653
156359:0.0341641
156411:0.0341641
156516:0.0640825
156563:0.212843
156676:0.0561881
156880:0.0204149
156976:0.0676471
157027:-0.0352447
157088:0.0907615
157338:0.0341641
157358:0.0533291
157624:0.058622
157682:0.0676713
157767:0.0547176
157796:0.0625956
157850:0.121197
157856:0.0676471
158023:0.0649138
158153:0.0652826
158174:0.0596382
158276:0.0646088
158570:0.0598653
158590:0.025735
158720:0.00945069
158839:-0.0352447
158841:0.066117
158873:0.0619214
159034:0.152871
159039:-0.00851197
159097:0.0580034
159105:0.00555264
159142:0.0672725
159145:-0.0164828
159378:0.0540569
159472:0.0610112
159642:0.0619214
159684:0.0156391
159899:-0.0221484
159900:0.0676471
159960:0.0676471
160197:0.0658766
160235:0.0336441
160251:0.0651941
160253:0.0547176
160313:0.203571
160555:0.0610112
160567:0.0686704
160702:-0.00286908
160896:0.121472
161105:-0.0352447
161326:0.0569095
161356:0.0610112
161402:0.0775157
161436:0.0479551
161663:0.0825547
161941:0.0204149
161992:-0.0352447
162000:0.0644934
162092:0.0651941
162138:0.0580034
162169:-0.0250329
162290:0.043368
162372:0.0681879
162417:-0.00851197
162469:0.0547176
162513:0.0563342
162557:0.0690164
162595:0.0563342
162753:0.047709
162755:0.0373242
163080:0.0612447
163130:0.00555264
163273:0.066117
163511:0.066117
163528:0.0634654
163583:0.0336441
163626:-0.0212484
163661:0.0383737
163800:0.0547176
163880:0.0204149
163882:0.066072
163904:0.0336441
163970:0.0572843
164162:0.067843
164267:0.0657112
164323:0.0596382
164342:0.0505225
164761:0.152238
164820:-0.0352447
164878:0.0637294
164925:0.0449244
165018:0.0676713
165074:0.0644485
165287:-0.0421283
165398:0.0204149
165411:0.0610112
165525:0.166257
165719:0.149844
166053:0.0510018
166081:0.0661361
166108:0.0479551
166141:0.0987181
166179:0.00555264
166196:0.0603798
166422:0.066072
166592:-0.0352447
167056:0.171928
167429:-0.0352447
167549:-0.0250329
167665:-0.0212484
167773:0.0383737
167994:0.00555264
168018:0.025735
168192:0.0449244
168289:0.043368
168421:0.0672725
168522:0.0687936
168554:0.0637294
168637:0.152871
168651:0.0681033
169028:0.0596382
169155:0.0603798
169156:0.0603798
169234:0.0108615
169256:0.0686936
169278:0.0685132
169323:-0.0250329
169543:0.0462407
169711:0.0637294
169840:0.0540569
169920:0.121472
170065:0.0580034
170133:0.0644485
170301:0.0561881
170329:0.0518874
170357:0.0624213
170595:0.0348256
170638:0.0594526
170790:-0.0421283
170856:-0.00642391
170866:0.0652826
170870:0.0644485
170884:0.0596382
170889:0.0610112
171028:0.0644934
171328:0.0646088
171592:0.093055
171617:0.0462407
171891:0.0569095
171952:0.069382
172172:-0.0272514
172336:0.0658766
172388:0.0634654
172410:0.0624213
172581:0.0624213
172589:0.0661361
172696:0.0449244
172712:0.131132
172781:0.0661197
172911:0.0678534
173158:0.0446443
173402:0.101401
173495:-0.0462539
173764:0.0286188
173851:0.0569095
173940:0.0156391
173981:0.0685132
173999:0.0637294
174031:0.0649138
174063:0.0536641
174091:0.0594526
174098:0.0632805
174468:0.099791
174503:0.0980963
174893:0.0607943
174912:0.0596382
174929:0.0286188
175412:0.0531591
175426:0.066072
175641:0.0336441
176090:0.0686148
176217:0.0676713
176666:0.0580034
176692:0.136373
176703:-0.00642391
176757:0.0685132
176883:0.0449244
176931:0.069382
176941:0.00945069
176948:-0.0212484
177081:0.0336441
177145:0.0640825
177146:0.0690164
177285:0.120282
177297:0.00945069
177536:0.0596382
177742:-0.0352447
178024:-0.0272514
178122:0.0661197
178228:0.109469
178470:0.0423745
178606:0.066803
178678:-0.00642391
178741:0.0624213
178850:0.0561881
178904:0.0127625
178948:0.221955
179109:0.116334
179179:0.0383737
179184:0.0658766
179374:0.0610112
179525:0.0603384
179574:0.0651941
179634:0.0690164
179989:0.0610112
180347:0.0596382
180778:0.0536641
181067:0.0672725
181120:0.0531591
181193:0.025735
181241:0.0540569
181245:0.0479551
181313:-0.00851197
181322:0.0127625
181546:0.0619214
181819:0.178894
181961:0.047709
182081:0.00555264
182154:0.00555264
182257:0.0661197
182672:0.0672725
182677:0.0310381
182679:0.0690164
182753:0.00945069
182790:0.025735
182870:-0.0212484
182875:0.0610112
182898:0.0310381
182933:0.0667206
182953:0.0619214
182972:0.0676713
183181:0.0127625
183219:-0.0164828
183312:0.106415
183379:0.0505225
183446:0.179745
183630:0.0423745
183801:0.0678534
183848:0.0632805
183855:0.0640825
183860:-0.00286908
183901:0.00945069
184044:0.0678534
184080:0.0649138
184305:0.066803
184359:0.0634654
184400:0.0634654
184448:0.0961882
184522:0.172678
184563:0.0681879
184578:0.0644934
184664:0.0657112
184703:0.0204149
184775:0.0690164
184907:0.140375
184972:0.0423745
185023:-0.0352447
185038:0.0533291
185161:0.0625956
185266:0.043368
185282:0.0510018
185520:0.0373242
185770:0.047709
185805:0.0646088
185910:-0.00851197
185994:0.0510018
186018:0.0462407
186177:0.0204149
186420:0.047709
186431:0.066117
186434:0.156694
186473:0.0652826
186627:0.0310381
186672:-0.0462539
186734:0.0644485
186755:0.0446443
186804:0.149986
187036:0.0626828
187063:0.0676471
187412:0.0619214
187438:-0.0221484
187572:0.179745
187636:-0.0250329
187653:0.0680736
187718:0.0995185
187727:0.0681879
188072:0.0531591
188620:0.099791
188717:0.0580034
188865:0.11633
188887:0.0603798
188931:0.0649138
189288:0.0678534
189320:0.0536641
189358:0.0594526
189424:0.0681033
189496:0.067843
189511:0.0127625
189839:0.0510018
189860:0.141877
189915:0.0678534
189918:-0.0462539
189994:0.136373
190019:0.0310381
190088:0.155844
190328:0.0310381
190497:0.0572843
190576:0.0661361
190656:0.0640825
190781:0.0676471
190822:0.0479551
190870:0.0446443
190951:0.043368
191220:0.157594
191839:0.0446443
191910:0.112654
191924:0.0607943
192146:0.0624213
192178:0.0598653
192256:0.0547176
192426:0.0547176
192477:0.0657112
192682:0.139532
192836:-0.0164828
192839:0.0681879
192995:0.0686148
193225:0.0658766
193251:0.025735
193348:0.043368
193389:0.0547176
193434:0.122593
193545:0.0310381
193645:0.0809362
193930:0.0661197
194002:0.0594526
194220:0.0594526
194260:0.0640825
194423:0.0634654
194463:0.0646088
194542:0.0310381
194610:0.0540569
194613:0.0547176
194617:0.114347
194696:0.0532044
194703:0.163093
194829:0.0446443
194871:0.0531591
195042:0.0446443
195051:0.0310381
195069:0.0676471
195140:0.0204149
195386:0.0672725
195435:0.0594526
195702:0.0995185
195961:0.0383737
196011:0.00555264
196036:0.127055
196172:0.0644485
196189:-0.0272514
196465:0.058622
196516:0.116826
196610:0.0598653
196728:0.0348256
196816:0.025735
197057:0.0341641
197204:-0.0352447
197250:0.0626828
197365:0.101401
197439:0.0680736
197527:-0.0421283
197666:0.122606
197845:0.0619214
198048:0.0341641
198051:0.0678534
198052:0.0640825
198089:0.0637294
198553:0.0572843
198712:0.0649138
198772:0.0786957
198882:0.0610112
198916:0.0531591
199057:0.0594526
199116:0.066117
199174:-0.0272514
199268:0.0561881
199321:0.052874
199323:0.0624213
199338:0.0536641
199368:0.058622
199666:-0.00851197
199749:0.0626828
199833:-0.00642391
200031:0.0652826
200055:-0.0164828
200340:0.0637294
200345:0.101929
200375:0.0686148
200753:0.0540569
200932:0.0569095
201160:0.110024
201250:0.0156391
201258:0.0680736
201370:0.0505225
201730:0.0644934
201801:0.0449244
201872:0.106666
201935:0.0625956
202023:0.0676713
202048:0.0341641
202056:0.0610112
202115:0.058622
202186:0.0383737
202193:0.255538
202205:-0.00851197
202264:0.0607943
202438:0.066803
202790:0.0672725
203439:0.0462407
203451:0.15596
203453:0.0373242
203522:0.167866
203534:0.0681033
203548:-0.0221484
203730:0.106067
203796:0.0479551
203804:0.0127625
203923:0.0594526
203934:0.0644934
204013:0.0505225
204060:0.0619214
204267:0.0619214
204314:-0.0272514
204337:0.0598653
204506:0.0651941
204878:0.0678534
204909:-0.0250329
204920:0.0619214
205048:0.0644934
205134:-0.0221484
205191:0.043368
205538:0.069382
205551:0.0479551
205559:0.0661197
205562:0.0664513
205765:-0.0250329
205792:0.0686148
205826:0.165115
205897:0.0644485
206045:0.0681879
206482:0.0310381
206553:-0.0421283
206649:0.0510018
206691:0.0596316
206723:-0.0250329
206772:0.0536641
206920:0.0310381
207106:0.0540569
207214:0.0547176
207291:0.0644485
207342:0.0676713
207351:0.0572843
207394:0.0423745
207691:0.0286188
207840:-0.0221484
207980:0.0531591
208048:-0.0421283
208151:-0.0164828
208273:0.0652826
208473:0.156694
208487:0.0572843
208548:0.0603798
208613:-0.0221484
208641:0.0423745
208682:0.0596382
208754:0.025735
208982:0.066803
208996:0.0690164
209022:0.052874
209057:0.0373242
210032:0.0607943
210121:0.0681033
210293:0.0540569
210342:0.025657
210451:0.047709
210512:0.12651
210587:0.058622
210740:0.043368
210906:-0.00286908
210958:0.0644485
211080:0.0628238
211143:0.058622
211158:0.0533291
211200:-0.0250329
211349:0.0672725
211436:0.0567848
211540:-0.00286908
211720:0.047709
211863:0.0532044
211925:0.0632805
212032:-0.0421283
212259:0.0651941
212265:0.0686936
212285:0.0634654
212603:0.047709
212753:0.0980963
212783:-0.00642391
212817:0.180252
213287:0.0505225
213390:-0.0212484
213455:0.0407653
213556:0.166831
213956:0.0667206
214001:0.025735
214011:-0.00642391
214033:0.0596382
214056:-0.00642391
214132:0.134225
214292:-0.00642391
214366:0.0156391
214690:0.0632805
215121:0.0634343
215275:0.0561881
215342:0.066072
215354:0.0679588
215361:-0.0164828
215523:0.13156
215575:0.0383737
215896:-0.0421283
215929:0.0767278
216368:0.0658766
216564:0.151776
216611:0.0462407
216733:0.067843
216787:0.0533291
216809:0.0595348
216861:0.0624213
216867:0.0687936
216989:0.0686148
217161:0.069382
217164:0.0681879
217217:0.0607943
217610:0.00555264
217801:0.0561881
217863:0.0657112
218226:0.221955
218323:0.191091
218333:0.0626828
218579:0.0446443
218893:0.0624213
218894:0.0685132
218901:0.131257
219109:0.0634654
219149:0.0510018
219250:0.0676471
219440:0.0610112
219674:0.166257
219695:0.066117
219866:0.0676713
219961:0.0911355
220087:0.0603798
220367:0.167002
220392:0.058622
220562:0.0446443
220599:0.00945069
220602:0.0651941
220788:0.0255005
220910:-0.0352447
220976:0.0569095
220995:0.0685132
221024:0.0407653
221266:0.150391
221371:0.0531591
221547:0.0940212
221664:0.0672725
221956:0.0676471
222158:0.0624213
222258:-0.0352447
222262:0.0510018
222265:0.101354
222385:0.0676471
222662:0.0446443
222880:0.0661361
222889:0.0676713
223064:0.0569095
223105:0.0383737
223110:0.0536641
223161:0.00945069
223185:0.0348256
223439:0.0108615
223489:0.0462407
223521:-0.0164828
223683:0.0632805
223712:0.104672
223715:0.0336441
223771:0.0286188
223780:0.0676713
223899:0.0610112
224116:0.15257
224163:0.0644485
224349:0.0624213
224465:0.0681879
224585:0.0127625
224736:0.0685132
224819:0.126826
224912:0.139509
225077:0.0533291
225121:0.0127625
225223:0.043368
225335:0.0462407
225482:0.0667206
225504:0.0580034
225612:0.038994
225647:0.0336441
225657:0.0637294
225739:0.0646088
225850:0.0612447
225915:0.0383737
226216:0.00945069
226283:0.120261
226297:0.145644
226329:0.0607943
226597:0.0680736
226610:0.0156391
226626:-0.0272514
226738:0.0625956
226787:0.0579029
226788:0.0505225
226877:0.0687936
226978:-0.00642391
227049:0.0533291
227165:0.0341641
227182:0.0690164
227321:0.0572843
227436:0.0286188
227582:0.0658766
227688:-0.0462539
227736:0.0505225
227823:0.0690164
227911:0.0540569
228446:0.0510018
228505:0.0373242
228987:0.0336441
229025:0.0383737
229244:0.0531591
229344:0.0580034
229412:0.0595348
229690:0.0127625
229722:0.025735
229789:0.0686148
229827:0.0652826
229968:-0.0221484
229996:0.052874
230158:0.0690164
230162:0.11633
230214:0.0878491
230280:-0.00851197
230348:0.0624213
230505:0.0540569
230692:0.0383737
230984:0.127055
231119:0.0646088
231217:0.0657112
231253:0.0595696
231278:0.0626828
231324:0.0619214
231368:0.0716395
231431:0.0569095
231846:-0.0164828
231849:0.0626828
231938:0.058622
232012:0.0632805
232136:0.0580034
232201:0.107685
232574:0.0479551
232811:0.120282
232819:0.0690164
232839:-0.00851197
232893:0.0462407
232899:-0.0352447
233146:0.158958
233212:0.0652826
233322:0.0596382
233344:0.0156391
233486:0.066803
233491:-0.0421283
233706:0.066072
234099:0.0580034
234239:-0.0352447
234362:0.0204149
234408:-0.00851197
234423:-0.00642391
234444:0.0678534
234450:0.180252
234591:0.0640825
234798:0.052874
234939:0.0462407
235006:-0.0164828
235198:0.0676471
235364:0.0531591
235409:0.0383737
235480:0.0479551
235581:0.066072
235663:0.0661197
235722:0.0632805
235995:0.067843
235999:0.0510018
236026:0.0667206
236177:0.0686936
236186:0.0331497
236207:0.106067
236655:0.0607943
236687:0.0446443
236733:0.0632805
236751:0.052874
236806:0.0687936
237127:0.0286188
237148:0.0449244
237218:0.0936391
237414:-0.0352447
237480:0.0657112
237522:0.170771
237582:0.058622
237586:0.0644485
237978:-0.0212484
238271:0.00945069
238523:0.0681033
238533:0.069382
238854:-0.00286908
238921:0.0657112
239194:0.0598653
239267:0.058622
239283:0.0479551
239304:0.0580034
239393:0.043368
239406:0.0687936
239415:0.025735
239673:0.0644485
239697:0.0531591
239977:0.00555264
240086:0.066803
240194:0.171446
240372:0.191293
240425:0.0204149
240468:0.0547176
240602:0.101929
240638:0.0547176
240693:0.0348256
240842:0.0686148
241135:0.0667206
241202:0.0652826
241221:0.0686148
241298:0.0619214
241634:0.0625956
241768:0.0462407
241790:0.0579029
241816:0.0676471
241915:0.0531591
241917:0.0625956
241989:-0.0212484
242066:0.163093
242198:0.0547176
242200:0.0649138
242288:0.0661361
242322:0.00555264
242329:0.0462407
242513:-0.0164828
242521:0.0625956
242587:0.047709
242818:0.0606943
242839:0.0658766
242933:0.104135
242994:0.0540569
243154:0.0995185
243232:0.0540569
243300:0.052874
243309:0.0569095
243328:-0.0164828
243358:0.066803
243535:0.0348256
243588:0.107535
243603:0.0547176
243613:0.0644485
243842:0.0407653
243866:-0.0212484
243965:0.158958
244050:0.0407653
244078:0.0127625
244107:0.0596382
244469:0.069382
244606:0.0610112
244880:0.277653
244939:0.0547176
244962:0.0156391
245122:0.203571
245222:0.0156391
245229:0.0925912
245560:0.0667206
245678:0.0596382
246002:0.0479551
246008:-0.0212484
246084:0.150391
246152:0.0685132
246448:0.0649138
246452:0.0678534
246488:0.0652826
246594:0.0632805
246622:0.066803
246727:0.0449244
246844:0.0644934
247093:0.0383737
247182:0.066803
247215:0.090856
247360:0.0961882
247472:0.0649138
247875:0.069382
247929:0.0672725
248111:0.0676471
248540:0.0632805
248868:0.135781
249041:0.0286188
249150:0.0536641
249206:0.0594526
249234:0.0619214
249250:0.0644934
249423:0.0685132
249600:0.0658766
249723:0.0624213
250086:0.0348256
250281:0.0612447
250361:0.0603798
250404:0.0625956
250539:0.0626828
250561:0.0909632
250607:0.0595348
250796:0.0449244
250816:0.0373242
250932:0.0624213
251152:0.0661197
251286:0.0423745
251309:0.0612447
251311:0.00945069
251753:-0.0250329
251913:0.0407653
252100:0.0479551
252148:0.0532044
252156:0.0156391
252191:0.0373242
252228:0.0531591
252267:0.0423745
252270:0.0658766
252430:0.0667206
252439:0.0681033
252450:0.0572843
252474:0.124298
252855:0.0598653
252947:0.0336441
252999:0.052874
253030:0.0626828
253530:0.140375
253796:0.0532044
253829:0.0687936
253910:0.0634654
253938:0.138549
254002:0.0676713
254085:0.067843
254278:0.0651941
254473:0.0661197
254538:0.047709
254799:0.0625956
254947:0.0681033
255281:0.0678534
255292:0.052874
255806:0.0286188
256240:0.0667206
256256:0.0667206
256437:0.0680736
256565:0.0625956
256608:0.0687936
256625:0.0286188
256665:0.0835192
256666:0.0156391
256749:0.0505225
256816:0.114347
256891:0.0686936
256902:0.0661361
257040:0.110024
257460:0.0596382
257488:0.0676471
257520:-0.0164828
257615:0.0383737
257818:0.025735
257870:0.0690164
258102:-0.0421283
258143:0.0449244
258159:0.0127625
258179:0.058622
258626:0.0561881
258655:0.0569095
258697:0.0407653
258978:0.0687936
259225:-0.0352447
259231:0.129946
259345:0.0449244
259514:0.108919
259795:0.0533291
259850:-0.00851197
259870:0.0690164
259933:0.0561881
260050:0.090856
260090:0.066072
260216:0.0603798
260298:0.00555264
260330:0.0156391
260352:-0.0352447
260412:0.0423745
260418:0.0204149
260537:0.0569095
260608:0.0540569
260787:0.112502
260985:0.165115
261074:0.118231
261076:-0.00286908
261164:0.0531591
261198:-0.0250329
261409:0.0510018
261490:0.0644934
261550:0.0658766
261593:0.0681879
261650:0.00555264
261652:-0.00286908
262096:0.0681033
