Version 8.6.1
Id
Min label:0
Max label:1
bits:18
lda:0
0 ngram:
0 skip:
options: --cubic abc --cubic bcd --hash_seed 0 --quadratic ad --quadratic bc --link identity
Checksum: 916882801
:0
10025:-0.00706942
16298:0.00662685
29466:-0.00706942
31359:-0.00898154
71367:0.00803624
89744:-0.0198175
101199:0.006291
105717:-0.0179631
116060:0.00803624
137947:-0.0445017
141191:-0.00990874
141829:0.00154388
156242:0.00255704
159696:0.00401812
186887:-0.00535718
190637:-0.0198175
197480:-0.0179631
203755:0.00379509
220734:-0.00353471
233059:-0.0424856
250280:-0.00322504
