Version 8.6.1
Id 
Min label:-10000
Max label:10000
bits:18
lda:0
0 ngram:
0 skip:
options: --hash_seed 0 --quadratic :: --link identity
Checksum: 3881054224
:0
114:-0.0625954
186:0.0697776
241:0.0578565
464:0.0760113
983:0.0131022
1512:0.162682
1831:0.0705193
1876:0.0700513
2130:0.0752047
2330:0.188772
3036:0.0391804
3142:0.107782
3190:0.0805427
3266:0.0557545
3327:0.0740101
3366:0.0652563
3645:-0.00637685
3677:0.0741986
3692:0.0790369
3802:0.171468
3837:0.0774424
3840:0.0729368
3902:-0.0518161
4052:0.0814506
4172:0.0511221
4818:0.106107
4940:0.0785195
5176:0.0812277
5426:0.0805427
5663:0.0757041
5686:0.0718596
5810:0.0452555
5978:0.230723
6017:0.0761028
6087:0.0775689
6207:0.0781682
6628:0.0800867
6759:0.0767949
7071:0.0452555
7188:0.0725735
7244:0.076517
7490:0.162312
7536:0.0786626
7659:0.0596188
7700:0.0729368
7721:0.0794752
8362:0.0588805
8477:0.0790369
8589:0.0337139
8592:0.0786626
8616:0.0216008
8980:0.0686556
9202:0.076697
9247:0.329358
9249:0.0596188
9279:0.0596188
9332:0.101741
9444:0.0794677
9511:0.0379951
9593:0.0345686
9746:0.113157
10114:0.252274
10147:0.0391804
10170:0.126233
10225:0.0494352
10259:0.0767949
10333:0.0548952
10365:0.0665501
10826:0.158178
10929:-0.0399418
11045:0.0700513
11240:0.0794752
11258:-0.00637685
11558:0.0660767
11597:0.0741986
11681:0.0766279
11924:0.0812277
12145:0.168546
12153:0.072362
12678:0.078342
12814:0.0692661
13185:0.0808862
13306:0.238772
13329:0.0700513
13413:-0.0399418
13456:0.091443
13555:0.0652563
13795:0.120355
13912:0.0961437
13930:0.0790369
13961:-0.0399418
14254:0.0452555
14560:0.0452555
14566:0.0805427
15178:0.072362
15233:0.0794752
15234:-0.0399418
15780:0.188629
16116:0.0725735
16259:0.0741752
16328:0.0578565
16536:0.0494352
16890:0.11765
17039:0.0721121
17477:0.080172
17515:0.0725735
17611:0.0212909
17653:0.124757
17682:0.143499
17858:0.0794677
18272:0.0785738
18392:0.182012
18403:0.0685803
18645:0.0411381
18753:0.0609337
19211:-0.0484923
19270:0.0609337
19291:0.076697
19467:0.0626579
19520:0.0452555
19601:0.0792713
19894:0.0966217
19922:0.218316
19963:0.0775689
20237:0.0800867
20436:0.162312
20622:0.0411381
20829:0.0661863
20927:0.0411381
20961:0.0781682
21204:0.0721121
21283:0.0731094
21425:0.0752047
21510:0.0806652
21573:0.0755173
21904:0.0731094
21953:-0.0196699
22126:0.0652563
22383:0.078342
22760:0.0557545
22790:0.126504
22822:0.0744578
22858:0.0391804
22887:0.0452555
22914:0.0962595
22976:0.0618748
23497:0.0775689
23755:0.0741986
23938:0.0596188
23995:0.0794752
24098:0.0735029
24137:-0.0518161
24155:-0.000186868
24229:0.0665501
24696:0.0691181
25022:0.0806652
25177:0.0216008
25245:0.101741
25306:0.0757041
25521:0.0810585
25686:0.0596188
25700:0.0562142
25864:0.0391804
25889:-0.0484923
25919:0.0634636
25992:0.0792713
26131:0.0785195
26310:0.0411381
26450:0.058325
26534:0.202286
26614:0.0774424
27289:0.0686556
27418:0.0790369
27492:0.0731094
28002:0.072362
28073:0.072362
28119:0.0731094
28356:0.0596188
28390:0.0806652
28416:-0.0196699
28506:0.0729368
28519:0.0216008
28583:0.0588805
28603:0.0652563
28816:0.0618748
28852:0.0741986
28880:0.0775689
28906:-0.0383189
29779:0.0781999
29780:0.0812277
29892:0.131787
30117:0.0618748
30324:0.138601
30355:0.0794677
30443:0.0969274
30628:0.20578
30715:0.0766279
31309:0.125511
31657:0.0567312
32052:0.129552
32189:0.0790877
32286:0.0446616
32288:0.0781682
32554:-0.0629519
32688:0.0660767
33027:0.0810585
33090:0.0686556
33143:0.0665501
33417:0.182026
33630:0.0692661
34006:-0.0570076
34082:0.0786626
34289:0.0216008
34372:0.107992
34417:0.0808862
34448:0.192643
34575:0.0452555
34800:0.0725735
34912:0.0691181
35043:0.159147
35522:0.173167
35689:0.0331786
35699:0.0634636
35953:0.0752047
36052:0.0609337
36276:0.142871
36463:0.0718596
36844:0.0705193
37236:0.0812277
37416:0.0718596
37601:0.078342
37609:0.0661863
37627:0.0799442
37776:0.078342
37780:0.080338
37888:0.0812277
38505:0.116211
38623:0.0605916
38625:0.0494352
38749:0.080338
38756:0.0767949
38790:-0.0383189
38887:0.0740101
38888:0.076517
38920:0.0596188
38925:0.0548952
39048:0.192643
39099:0.0446616
39196:0.0731094
39656:0.125534
40035:-0.0462831
40218:0.0411381
40219:0.0685803
40242:0.0808862
40272:0.0212909
40412:0.0661863
40515:0.058325
40549:0.0452555
40660:0.0411381
40663:0.0660767
40907:0.0692661
41071:0.0781682
41075:-0.0175036
41397:0.0969274
41485:0.0799442
41503:0.0562142
41627:0.0790877
41936:0.209148
41978:0.201531
42037:0.0767949
42058:-0.0570076
42148:-0.0518161
42197:0.0131022
42256:0.117375
42296:-0.040922
42336:0.0662185
42739:0.250105
42760:0.0660767
42940:0.0216008
42984:0.13425
43261:0.0346093
43650:0.0671102
43719:0.0661863
43877:0.080172
43944:0.0814506
44018:-0.0484923
44240:0.136367
44514:0.0337139
44521:-0.0383189
44751:0.0562142
44843:0.0775689
44923:0.0725735
44992:0.0618748
45206:0.0685397
45451:0.076697
45529:-0.0383189
45584:-0.040922
45954:0.0808862
46236:0.0814506
46357:0.0705193
46781:0.0548952
46927:0.113157
47202:0.0212909
47226:0.0718596
47331:0.080338
47429:0.105891
47527:0.058325
48299:0.0808862
48309:0.0691181
48392:0.206457
48449:0.0761028
48503:0.0557545
48722:0.0766279
48804:0.0626579
48854:0.0234926
48902:0.0805427
49239:0.163113
49256:0.0786626
49316:0.0741986
49364:0.0775689
49517:0.0812277
49537:0.125401
49672:0.0346093
49746:0.0757041
49836:-0.00637685
49842:0.110629
49860:-0.000186868
49908:0.192998
49923:0.0752047
50161:0.0810585
50369:0.140965
50532:0.0781682
50803:0.0686556
50972:0.076001
51049:-0.0293678
51187:-0.0629519
51266:0.080338
51331:0.0735029
51418:0.174159
51642:0.122441
51702:0.0767949
52119:0.0700513
52148:0.0670247
52231:0.0691181
52257:0.180565
52289:0.0660767
52349:0.0794677
53041:0.068048
53126:0.0446616
53175:0.0391804
53569:0.0211432
53642:0.0697776
54006:-0.0746102
54021:0.0718596
54035:0.0792713
54772:0.230723
54796:0.0665501
55186:0.150511
55200:0.106456
55312:0.12581
56014:0.0790877
56128:0.161537
56317:-0.0293678
56605:0.122441
56758:0.0617323
56884:0.0665501
56886:0.0799442
56920:0.0705193
57025:0.0697776
57786:0.120355
58114:0.158103
58140:0.0785738
58153:0.0892498
58165:0.080338
58749:0.0725735
58853:0.0446616
59376:0.0729368
59388:0.080338
59613:0.0610099
60019:0.0665501
60034:0.0781999
60200:-0.0570076
60526:0.0810585
60681:0.0705193
61015:0.0790369
61175:-0.0629519
61368:0.185682
61375:0.0446616
61534:0.0781999
61720:0.0812277
62272:0.0662185
62878:0.0660767
62992:0.0781682
63386:0.0800867
63438:0.0718596
63496:0.123455
63698:0.35014
63776:0.12581
63850:0.0744578
64400:0.0131022
64836:0.0578565
64890:0.125511
65031:0.162672
65324:0.0794677
65346:0.0686556
65582:0.0794752
65674:0.223765
66029:0.0752047
66104:0.0618748
66184:0.0774424
66204:-0.0625954
66351:0.0729368
66953:0.0775689
66996:0.0685803
67270:0.0346093
67518:0.0740101
67874:0.0346093
67895:0.0812277
68038:0.0946843
68123:0.0626579
68408:0.172542
68474:0.080338
68617:0.076697
68628:0.0765126
68954:0.0331786
69003:0.188391
69029:0.0626579
69065:-0.0629519
69133:0.0557545
69139:0.072362
69301:0.0331786
69379:0.0740101
69499:0.0211432
69508:0.0548952
69509:0.0621667
69538:0.0806652
69618:0.143767
69649:0.080172
69700:0.0520515
69720:0.0337139
69977:0.0446616
70205:0.0799442
70251:0.0799442
70338:0.0337139
70459:0.078342
70473:0.0548952
70690:0.0806652
70778:0.143418
70841:0.0596188
70858:0.072362
71125:0.0725735
71139:0.140259
71163:0.0781999
71586:0.0692661
71595:-0.0484923
71685:0.0562142
71719:0.162312
71934:0.0794677
72334:0.0634636
72466:0.107992
72528:0.0774424
73450:0.0792713
73495:0.0520515
73592:0.0411381
73749:0.0810585
74038:0.0691181
74170:-0.0484923
74558:0.0757041
74576:-0.0293678
74580:0.0752047
74771:0.0661863
75045:0.0458441
75082:0.0800867
75106:0.0805427
75843:0.171682
75960:0.0790369
76066:-0.0399418
76354:-0.00637685
76614:0.0740101
76879:0.0557545
77378:0.136694
77430:0.0790877
77456:0.206457
77466:0.104559
77504:0.0744578
77740:0.0697776
77914:0.0562142
78068:0.0800867
78135:0.0810585
78197:0.0660767
78468:0.0520515
78587:0.0391804
78762:-0.0462831
79094:0.0652563
79170:0.0806652
79235:0.0562142
79585:0.0814506
79616:-0.0196699
79669:0.0725735
79888:0.0786626
80222:0.20578
80410:0.118967
80548:0.072362
80988:0.178733
81124:0.0760113
82133:0.0721121
82202:0.136087
82386:0.172347
82546:0.0735029
82632:0.0781682
83163:0.0578565
83321:-0.0484923
83350:0.080338
83839:0.0766279
84242:0.125658
84327:0.0774424
84384:0.0364709
84585:0.245236
84630:0.0446616
84713:0.0652563
84784:0.076697
85067:0.0634636
85098:-0.00637685
85291:0.0520515
85388:-0.000186868
85418:0.0725735
85454:0.0729368
86188:0.080338
86596:0.058325
86618:0.0785738
86766:0.0774424
86952:0.0741752
87141:0.080338
87248:0.0978041
87272:0.0786626
87480:0.117375
87859:0.0785195
88293:-0.0625954
88294:0.210179
88480:0.0781999
88526:0.0697776
88590:0.0752047
88700:0.0131022
88747:0.0790877
88809:0.0731094
89135:0.172347
89155:0.0131022
89178:0.188391
89306:0.134554
89808:0.182012
90118:0.0691181
90342:0.12706
91135:0.0790369
91189:0.0790369
91477:0.0618748
91756:0.0805427
91898:0.128319
91938:0.188629
92002:0.0725735
92247:0.0337139
92323:-0.0293678
92450:0.245236
93003:0.0735029
93227:0.0686556
93235:0.0346093
93255:0.072362
93352:0.0661863
94187:0.0520515
94324:0.0785195
94412:-0.000186868
94616:0.209148
94681:-0.0383189
94874:0.139075
95098:0.0781999
95190:0.0741752
95355:0.080172
95419:0.0790877
95550:0.0626579
95648:0.058325
95735:-0.0518161
96030:0.0790877
96439:0.0752047
96930:0.0892498
96951:0.0760113
97250:0.0578565
97462:0.0744578
97668:0.0721121
97761:0.0685803
97891:0.078342
97935:0.0692661
97945:0.0733078
98066:0.140965
98389:0.0810585
98460:0.0131022
98552:0.0446616
98948:0.165783
98966:0.0808862
99225:0.0617323
99253:0.0760113
99371:0.0691181
99481:0.0212909
99504:0.152818
99747:0.0665501
100198:0.0741752
100241:0.0626579
100522:-0.0570076
100606:0.0697776
100693:0.0211432
100736:-0.0293678
100746:0.136197
100848:0.0786626
100905:0.0578565
101026:0.189356
101553:0.058325
101801:0.0893024
102102:0.0766279
102135:0.0761028
102516:0.106727
102804:-0.0570076
102836:0.135689
102940:0.0752047
103069:0.0814506
103357:0.0735029
103451:0.0740101
103979:0.0735029
103981:-0.0196699
104356:0.0331786
104408:0.0665501
105148:0.0411381
105394:0.140068
105426:0.180565
105492:-0.0629519
105607:0.0781682
105638:0.0949956
106075:0.0588805
106180:0.0609337
106575:0.0588805
106686:0.0790877
106689:0.0446616
106754:0.0740101
106794:0.0744578
107024:0.172542
107289:0.0548952
107637:0.0794752
107838:0.0729368
108081:0.058325
108218:0.0725735
108670:0.0596188
108710:0.0721121
108917:-0.0196699
109702:0.080172
109871:0.0785195
110069:0.0790369
110081:0.0665501
110526:0.0744578
110686:0.0740101
110757:0.0752047
110811:0.0211432
110846:0.0373462
110864:0.185682
110874:0.0800867
111062:0.192186
111274:-0.0570076
111333:0.0562142
111440:0.0520515
111553:0.0812277
111644:0.0794752
111888:0.17085
112073:0.0494352
112329:0.0634636
112415:0.0609337
112616:0.0511221
112716:0.0808862
112749:0.0391804
112767:0.150511
112848:0.0702406
112879:0.078342
112953:0.0721121
113020:0.0799442
113157:0.0618748
113282:0.0790369
113308:0.078342
113360:0.0961437
113673:-0.0462831
113897:0.0346093
114165:0.0799442
114380:0.0741752
114851:0.0665501
115134:0.0212909
115140:0.0761028
115315:-0.0293678
115439:0.0785195
115476:-0.00637685
115689:0.0705193
115883:0.0578565
116060:1.08132
116169:0.099988
116356:0.0391804
116605:-0.00637685
116660:0.13425
116680:-0.0570076
116817:0.127511
117038:0.178839
117066:0.0212909
117461:-0.0399418
118077:0.160381
118097:0.072362
119059:0.0210948
119532:-0.0383189
119673:-0.0484923
119728:0.127696
119872:0.076697
119948:0.0766279
120139:0.0740101
120177:0.0686556
120415:0.0781999
120772:0.078342
120821:0.0691181
120877:0.0609337
121057:-0.0629519
121655:0.0446616
121688:0.0794677
121750:0.0792713
121940:-0.0196699
122103:0.125914
122106:0.164617
122196:-0.0570076
122260:0.0685803
122323:0.0766279
122396:0.0131022
122431:-0.0175036
122506:0.142871
122841:-0.0379513
122892:0.0634636
122999:0.0346093
123465:-0.000186868
123602:0.143799
123680:0.0691181
123843:0.0792713
123996:0.0337139
124068:0.0411381
124232:0.0786626
124315:0.0969274
124401:0.0785195
124672:0.0274332
124914:0.0790369
124951:0.0596188
125074:0.0661863
125212:0.0337139
125541:0.0652563
125575:-0.0625954
125647:0.125658
125691:0.0391804
125742:0.0810585
125783:-0.0484923
125842:0.0557545
125919:0.0729368
126140:0.169247
126191:0.0761028
126441:-0.0383189
126518:-0.0570076
126527:0.0520515
126723:0.0692661
126786:0.0588805
126833:0.0672777
127227:0.237178
127232:0.0741986
127298:0.0665501
127419:0.0685803
127631:0.0792713
127754:0.0661863
127894:-0.0625954
128142:0.0760113
128191:0.0731094
128311:0.0741752
128539:0.121061
128604:0.0391804
128932:0.0785738
129002:0.0800867
129068:-0.0629519
129115:0.0211432
129222:0.0785195
129402:0.0665501
129520:0.0686556
129688:0.0781682
129739:0.0729368
129938:0.0578565
130162:0.0685803
130503:0.0808862
130582:0.0494352
130850:0.182026
131129:0.0962595
131198:0.0744578
131288:0.0978041
131326:0.0805427
131445:0.0786626
131474:0.0672777
131528:0.171462
131601:0.078342
131687:0.0774424
131850:0.077955
132151:0.0131022
132372:-0.0175036
132746:0.107779
133181:0.076001
133282:0.163113
133652:-0.0629519
133703:0.252274
133878:0.0785195
133964:0.0557545
134151:0.0578565
134231:0.080338
134449:0.076001
134527:0.0735029
134548:0.0452555
134578:0.0567312
134767:0.0697776
134800:0.21871
134888:0.138601
134900:0.0808862
135118:0.0609337
135200:-0.0625954
135213:0.128319
135466:0.0494352
135535:0.0216008
135733:0.0774424
135896:0.0702406
136037:-0.0765798
136041:0.0781999
136078:0.0752047
136127:0.0391804
136171:0.128566
136427:0.076697
136432:-0.0196699
136439:0.0806652
136559:0.0760113
136646:0.0691181
136658:0.0660767
136714:0.0729368
136929:0.106107
137031:0.0808862
137404:0.0757041
137416:-0.0383189
137464:0.0411381
137471:-0.0196699
137658:0.136914
137762:0.0718596
137972:0.139075
138357:0.0618748
139327:0.127368
139451:0.0794752
139743:0.0741752
139806:0.0741752
139856:0.0609337
140146:0.0520515
140726:0.0660767
140944:0.0131022
141075:0.0800867
141261:-0.0383189
141273:0.0810585
141368:0.0757041
141502:0.0741752
141580:0.0785738
141677:0.0799442
141695:-0.00637685
141713:0.058325
141827:0.0814506
142001:-0.000186868
142041:-0.0629519
142132:-0.0518161
142146:-0.0293678
142199:-0.0484923
142290:0.0735029
142381:0.0686556
142665:0.0494352
142883:0.0757041
142965:0.0499425
143251:0.0767949
143671:0.0752047
143779:-0.0293678
144084:0.0685803
144162:0.0216008
144430:0.0808862
144527:0.0697776
144565:-0.0462831
145015:0.0808862
145055:0.0494352
145466:0.084968
145522:0.0618748
145637:0.0685803
145739:0.0731094
145790:0.0775689
146151:-0.0462831
146212:0.0766279
146319:0.0965618
146372:0.0697776
146554:0.178267
146700:0.0792713
146972:0.0216008
147194:0.0211432
147504:0.0721121
147515:0.134554
147833:0.0331786
148101:0.0578565
148183:0.072362
148257:0.0452555
148459:0.0346093
149320:0.169247
149572:0.0794752
149646:-0.0399418
149735:0.0761028
149799:0.0609337
149817:0.0346093
149858:0.155316
150048:0.116866
150105:-0.0625954
150196:0.0810585
150543:0.0346093
150571:0.0806652
150651:0.0806652
150964:0.107779
151015:0.0557545
151265:-0.0629519
151317:0.0735029
151383:0.0580658
151738:0.129714
152283:0.0812277
152392:0.206887
152530:0.139755
152805:0.0799442
153092:0.098024
153363:-0.0399418
153446:0.0452555
153478:0.106727
153527:0.0391804
153706:0.0790877
153715:0.0792713
153770:0.0494352
154004:0.0562142
154009:0.0446616
154045:-0.0399418
154160:0.076001
154187:0.0452555
154518:0.0810585
154593:0.072362
154612:0.125534
154853:0.183643
155171:0.080172
155357:0.0781682
155427:-0.0462831
155442:0.13428
155473:0.139755
155567:0.0634636
155686:0.0792713
155802:0.183643
156002:0.076001
156563:0.201531
157088:0.152818
157132:0.0761028
157143:0.058325
157358:0.0685803
157527:0.0761028
157850:0.192998
157856:0.161537
157920:0.0520515
157924:0.0692661
158572:0.0774424
158819:0.0767949
158841:0.0757041
158995:0.0806652
159034:0.17022
159098:0.0634636
159104:0.0725735
159155:0.0562142
159164:0.0588805
159653:0.0557545
160150:0.0767949
160313:0.151817
160861:0.0800867
160898:0.0588805
161053:0.0548952
161256:0.0781999
161347:0.0494352
161402:0.250105
161410:0.080172
161655:0.0729368
161804:0.0634636
161855:0.080338
162151:-0.000186868
162372:0.178839
162836:0.0775689
163169:0.0721121
163538:-0.0175036
163621:0.0626579
163758:0.106966
163880:0.0700513
163919:0.0618748
164039:0.0686556
164164:0.0794752
164186:0.0969274
164242:0.168546
164746:0.080172
164761:0.0872626
164791:0.078342
164878:0.0691181
164899:0.117886
165030:0.0337139
165085:0.0786626
165236:-0.000186868
165269:-0.0625954
165525:0.076001
165719:0.189356
166458:0.0557545
166508:0.076001
166533:-0.0196699
166714:0.0785738
166967:0.0626579
167031:0.0578565
167056:0.123455
167090:0.0609337
167120:0.0692661
167280:0.0785738
167402:0.0652563
167551:0.0814506
168094:-0.0175036
168186:0.0725735
168237:0.0794752
168267:0.0814506
168371:0.0331786
168540:0.0331786
168637:0.17022
168790:0.0346093
169014:0.076001
169234:0.159929
169543:0.0660767
169545:0.072362
169617:0.0588805
169757:0.0731094
169976:0.0634636
170133:0.0337139
170953:-0.0629519
170974:0.0735029
171097:0.0978041
171206:0.0423824
171254:0.080172
171592:0.17085
171755:0.0665501
171891:0.0806652
171939:0.0705193
172254:0.0211432
172299:0.0692661
172424:0.0766279
172633:0.0212909
172671:0.0790877
172712:0.136367
173084:0.0744578
173292:0.0794752
173306:0.0790369
173402:0.168007
173459:0.0596188
173555:0.0588805
173683:0.0446616
173764:0.131617
173821:0.0800867
174539:-0.0175036
174855:0.0775689
175380:0.0761028
175412:0.162682
175972:0.076001
176196:-0.0196699
176608:-0.0175036
176611:0.0634636
176666:0.0725735
176692:0.174102
177037:0.0790369
177081:0.0740101
177119:0.0794752
177239:0.080172
177343:0.0685803
177892:0.0800867
178013:0.0652563
178171:0.0812277
178228:0.158178
178437:0.0741986
178507:-0.0518161
178652:0.0721121
178678:0.0686556
178948:0.170053
179571:0.0735029
179854:0.0685803
180265:-0.00637685
180385:-0.0383189
180631:0.0786626
180658:0.0731094
181100:0.0731094
181405:0.078342
181611:0.0810585
181819:0.174159
181979:0.107159
181998:0.078342
182262:0.0686556
182328:0.0446616
182672:0.0665501
182875:0.0609337
182968:0.0212909
183312:0.171462
183439:0.0957718
183446:0.120248
183780:0.0645752
184146:0.0799442
184171:-0.0625954
184448:0.0657997
184522:0.129552
184525:0.0781999
184678:0.0661349
184716:0.0216008
184793:-0.0518161
184907:0.0767949
184988:0.0782081
185199:0.0331786
185437:0.0411381
185708:0.0411381
186018:0.196389
186107:-0.00637685
186246:0.0494352
186259:0.0411381
186320:0.0691181
186420:0.0446616
186434:0.124102
186761:0.0774424
186804:0.223765
187346:0.0814506
187383:-0.0175036
187440:0.0596188
187572:0.120248
187653:0.0760113
187825:-0.0570076
188429:0.0800867
188670:0.0337139
188768:0.0767949
188826:0.0132486
188865:0.168166
189028:0.0337139
189860:0.173167
189994:0.174102
190088:0.21871
190093:0.0781682
190772:0.0520515
190779:0.076697
191093:0.131368
191220:0.12706
191509:0.0652563
192109:0.0775689
192175:0.0661863
192211:0.0212271
192260:0.0741752
192280:0.0805427
192374:0.0596188
192558:0.0806652
192682:-0.0518161
192746:0.0785195
193255:0.0740101
193434:0.0735029
193645:0.238772
193774:0.0705193
194703:0.0967803
195074:0.0661863
195162:0.0740101
195319:0.072362
195344:0.0634636
195702:0.135689
195854:0.106842
196036:0.111046
196345:-0.0293678
196516:0.136694
196610:-0.0518161
197008:-0.0383189
197350:0.0761028
197365:0.168007
197439:0.0760113
197666:0.125914
197817:0.0692661
197890:0.0744578
198243:0.0799442
198552:0.0774424
198567:0.0786626
198712:0.0216008
198772:0.178267
198854:0.0731094
198989:0.0775689
199088:0.0618748
199228:-0.000186868
199585:0.0790877
199936:-0.00637685
200195:0.0800867
200202:0.0578565
200210:0.0774424
201160:0.185395
201258:0.0969274
201872:0.116866
202011:0.0520515
202056:0.0741986
202193:0.218316
202471:0.0446616
202639:0.0806652
202698:0.0774424
202802:0.0810585
203018:0.0814506
203106:0.0700513
203282:0.0548952
203405:-0.0462831
203439:0.0697776
203451:0.171468
203522:0.162672
203616:0.0785195
203730:0.127722
203802:0.0785738
203911:0.0865198
204184:0.0785738
204314:0.0800867
204352:0.0774424
204475:0.0735029
204506:0.105891
204510:0.0725735
204763:0.0741752
205129:0.0785195
205134:0.0665501
205176:-0.0399418
205527:0.0494352
205539:0.0767949
205562:0.0212909
205792:0.0740101
206479:0.0752047
206498:0.0705193
206691:0.126233
206867:0.076001
207214:0.078342
207294:0.0661863
208311:0.0618748
208472:-0.0293678
208473:0.124102
208854:-0.0399418
208928:0.0705193
208971:-0.0399418
209022:0.0578565
209070:0.0805427
209436:0.0799442
209446:0.058325
209539:0.0652563
210018:0.0761028
210201:-0.0625954
210482:0.0731094
210505:0.076001
210512:0.0364709
210546:0.0805427
210681:0.0761028
210907:0.0520515
210966:0.0735029
211080:0.178733
211200:-0.0484923
211455:0.0697776
211728:0.076697
211772:0.0691181
211926:0.0785195
211970:-0.0629519
212030:0.0725735
212333:0.11226
212783:0.0686556
212817:0.182959
212924:0.0781682
213381:0.0729368
213556:0.192186
213610:0.0721121
214132:0.129714
214462:0.0903839
215006:0.0741986
215043:-0.0625954
215277:0.0786626
215354:0.171682
215523:0.136914
215940:0.0652563
216304:-0.0196699
216513:0.0808862
216564:0.202286
216713:0.0785195
216980:0.0799442
217281:0.0323423
217465:0.0331786
217565:0.0692661
217587:-0.0629519
217980:0.0652563
218041:0.076697
218108:-0.0484923
218127:0.0588805
218226:0.170053
218323:0.164617
218391:0.0786626
218901:0.136087
219221:0.0661863
219250:0.0557545
219384:0.0805427
219440:0.0609337
219513:0.0588805
219674:0.076001
219678:0.0724709
219839:-0.00637685
219875:0.0596188
220013:0.0705193
220140:0.0781999
220197:-0.0175036
220308:0.080172
220367:0.143499
220484:0.0337139
220572:0.0131022
220578:-0.0383189
220596:0.0331786
220599:0.0131022
220788:0.107782
220808:0.0626579
220995:0.0757041
221024:0.0969274
221067:0.0700513
221266:0.163172
221307:0.0661863
221358:-0.000186868
221369:0.0548952
221535:0.0794677
221547:0.118967
221717:0.136256
221749:0.0781682
221956:0.0557545
222174:-0.0293678
222262:0.076697
222695:0.0520515
222898:0.0775689
223181:-0.0383189
223395:0.0792713
223439:0.159929
223747:0.0740101
223771:0.0588805
224073:0.080172
224116:0.0946843
224161:0.0741986
224210:-0.0484923
224373:0.0794752
224618:0.0557545
224650:0.0741752
224737:0.0562142
224819:0.143418
224912:0.0391804
225120:0.0422658
225223:0.0757041
225333:0.076001
225335:0.196389
226146:0.0660767
226216:-0.0196699
226283:0.188772
226297:0.158103
226311:0.0609337
226357:0.080172
226622:0.0548952
226626:0.0808862
226881:0.0794677
226989:0.0800867
227099:0.0808862
227224:0.0744578
227350:0.0216008
227378:0.0808862
228035:0.0766279
228716:0.0752047
229092:0.0211432
229179:0.0131022
229244:0.0790877
229281:0.0812277
229537:-0.0383189
229591:0.0618748
230162:0.168166
230214:0.101741
230540:0.0685803
230955:0.0697776
230984:0.111046
231029:0.0686556
231067:0.0557545
231119:0.0810585
231368:0.0786626
231404:0.0781682
231617:0.0346093
231878:0.0794677
232114:0.0806652
232534:0.080172
232830:0.0331786
233004:0.0216008
233082:0.0578565
233105:0.0331786
233146:0.225434
233297:0.0725735
233706:0.080338
233999:0.0652563
234109:-0.0518161
234263:-0.0175036
234408:0.0729368
234450:0.182959
234703:0.0520515
234798:-0.0462831
235094:0.0212909
235671:0.0634636
235834:0.0741752
236161:0.0812277
236186:0.121061
236207:0.127722
236513:0.0661863
236614:0.0805427
236709:0.0609337
236721:0.0767949
236733:-0.000186868
237218:0.099988
237286:0.076697
237522:0.127511
237556:0.0800867
237557:0.0812277
237581:0.0700513
237712:0.0741752
237740:-0.0625954
238171:0.0757041
238564:0.0131022
238767:-0.0570076
238926:0.0744578
239067:0.0131022
239373:-0.0399418
239387:0.0766279
239577:0.0718596
239936:0.0769229
239977:0.076697
240028:0.080172
240172:-0.0518161
240183:0.111046
240194:0.111984
240372:0.210179
240522:0.0806652
240602:0.237178
240850:0.0851785
240945:0.072362
241123:0.0411381
241135:0.0705193
241146:0.072362
241213:0.080338
241257:0.076697
241446:0.0794752
241486:0.076001
241632:0.0767949
241768:0.0700513
242066:0.0967803
242197:0.0767949
242281:-0.0175036
242430:-0.0462831
242538:0.0766279
242879:0.0626579
242946:0.0626579
242951:0.0718596
243059:0.0337139
243262:-0.0399418
243315:-0.0462831
243344:0.0391804
243588:0.206887
243613:0.0718596
243814:0.0785738
243965:0.225434
244133:0.0665501
244169:0.072362
244196:0.0785738
244375:0.127989
244456:0.0557545
244487:0.080338
244551:0.0792713
244624:0.0212909
244880:0.0691181
244908:-0.0462831
244939:0.0697776
245122:0.151817
245229:0.11765
245292:0.0785738
245299:0.076001
245561:0.0700513
245907:0.0660767
245984:0.0735029
245987:0.0216008
246084:0.163172
246162:-0.0383189
246281:0.0766279
246488:0.0562142
246748:0.0770352
247150:0.0548952
247215:0.16395
247292:-0.0484923
247360:0.0657997
247901:0.0578565
247982:0.0741986
248078:-0.0293678
248092:0.0794752
248116:0.0446616
248472:0.0812277
248661:0.0760113
248735:0.0697776
248853:0.0731094
248868:0.155316
249007:0.0794677
249157:0.0786626
249174:0.0692661
249501:0.0800867
249723:-0.0293678
249730:-0.0629519
250020:0.0660767
250089:0.0548952
250155:0.0337139
250257:0.0761028
250561:0.0741752
250737:0.0212909
251074:0.0761028
251388:0.0774424
251860:0.0744578
251919:0.0790877
252236:-0.000186868
252415:0.0735029
252430:0.0705193
252474:0.160381
252849:0.118792
252855:0.0618748
253255:0.076001
253496:0.0792713
253530:0.0767949
253534:0.0775689
253616:0.0548952
253938:0.098024
254093:0.0692661
254251:-0.0175036
254538:0.0446616
255716:0.0700513
255732:0.0718596
256109:0.0718596
256351:0.0705193
256471:0.0794677
256517:0.0781682
256647:0.0562142
256759:0.0718596
256816:0.106456
256973:-0.0570076
257040:0.185395
257245:0.0735029
257488:0.0346093
257501:-0.0196699
257683:0.078342
257834:0.072362
257886:0.0562142
258282:-0.0462831
258469:0.0786626
258692:-0.00637685
258764:0.0805427
258785:0.0731094
259058:0.0729368
259231:0.143799
259514:0.159147
259631:-0.000186868
260050:0.16395
260145:0.0808862
260175:0.076001
260257:0.111046
260298:0.0211432
260352:-0.0175036
260394:0.0691181
260560:0.0700513
260787:0.0718596
260847:-0.0518161
261074:0.072362
261144:0.0692661
261173:0.0721121
261306:0.0761028
